clear -0.081023 -0.29179 0.052021 -0.13324 0.028162 -0.0031446 -0.17156 0.063324 0.16568 -2.1722 -0.14127 0.087891 -0.2298 0.069017 0.21673 0.36556 -0.39979 -0.15506 0.099728 0.202 0.16989 0.14807 0.10938 -0.17141 -0.7258 -0.13189 -0.052768 -0.26383 -0.13189 -0.11408 0.081757 0.14773 -0.24342 0.0076364 -1.0992 0.13661 0.19262 -0.30012 0.031524 0.11439 -0.10854 0.21089 -0.037365 0.23449 0.054638 0.21505 0.023071 0.20918 -0.08606 -0.078589 -0.26945 -0.040802 -0.042601 -0.12093 -0.33614 0.25624 -0.35266 -0.17224 0.31018 0.6426 -0.036072 0.1558 0.26609 0.17298 -0.08158 0.0085636 0.13196 -0.11876 -0.19205 -0.32204 -0.092694 -0.19274 0.0056832 0.17194 0.24011 0.014739 0.091188 0.45903 0.0047753 -0.18136 -0.16434 0.012617 0.42791 0.075318 -0.042848 -0.055952 -0.071895 0.086806 0.078092 0.20169 -0.34189 -0.01975 -0.44579 -0.093254 0.23684 0.098079 -0.0018186 -0.13013 0.054252 -0.68408 0.21378 -0.084742 -0.12383 0.36645 -0.46434 0.56799 0.22341 0.31607 -0.23559 0.033889 0.062509 -0.31468 0.27684 -0.13729 -0.027181 0.17143 -0.35535 0.14426 0.14137 -0.27987 0.051007 0.1689 0.48614 0.43247 -0.31014 -0.2273 -0.17253 0.50221 -0.29023 -0.16833 -0.027586 0.25614 0.096051 0.19145 -0.15576 0.50767 0.0064827 -0.047304 0.47358 -0.029665 -0.095882 0.064574 0.1247 -0.3439 -0.59591 -0.17307 0.30627 0.16351 -0.21709 -0.13142 -0.029781 0.079412 0.36018 -0.068721 0.367 0.26454 0.1306 -0.34602 0.22326 0.22999 0.14122 -0.3084 0.22239 -0.13701 0.24538 0.10902 0.33084 0.052159 -0.54817 0.32921 0.33889 -0.060382 -0.16611 -0.26388 0.13997 -0.15486 -0.05013 -0.089628 -0.0080954 0.13155 -0.019735 0.25758 0.37509 -0.012096 -0.49247 0.13436 -0.21072 -0.13763 0.24047 0.13328 -0.043418 0.0070651 0.30496 -0.11184 0.68017 -0.65417 -0.39198 0.075546 -0.2043 0.041099 0.84586 -0.3361 -0.26385 -0.39417 -0.25468 -0.095349 0.19947 -0.30772 -0.53846 0.18258 -0.091379 -0.27183 0.10918 -0.042102 -0.25614 -0.039694 0.34987 -0.24526 -0.011983 -0.024231 0.62785 -0.16641 0.026109 0.029096 -0.16937 0.25329 -0.12066 0.023087 0.16152 -0.14058 0.044846 0.4533 0.34099 -0.028432 -0.39407 -0.068924 -0.29128 -0.012954 0.048176 -0.090455 -0.0098771 -0.022352 0.091535 -0.084673 -0.43955 -0.25237 0.79719 0.21526 0.0019634 -0.10022 -0.075669 -0.25113 -0.12675 0.12179 0.25892 0.026661 -0.38419 -0.18566 -0.15325 0.44484 -0.088815 0.10119 0.0060884 0.293 -0.415 0.26712 0.033683 -0.42317 0.22025 -0.027351 0.40923 -0.013339 -0.29543 0.37699 -0.019656 -0.082896 -1.5198 0.2961 0.81263 -0.18199 0.59082 0.007938 0.2309 0.23573 0.24941 -0.18754 -0.04029 0.17258 0.1948 0.131 -0.21552 0.016352 0.62256 0.41283 0.40387 -0.062911 -0.093159 -0.078137 -0.30083 -0.035913
low -0.21751 0.43389 0.149 0.14107 0.2574 -0.12448 0.0047523 0.035596 0.10741 -2.1047 0.17181 -0.15079 -0.044546 -0.090869 -0.43288 -0.13611 -0.0058198 -0.064724 0.23531 -0.36224 -0.21305 -0.075476 0.46786 -0.18465 -0.19746 -0.097471 0.39984 -0.084092 -0.53715 0.27303 -0.087786 0.24297 -0.38444 0.28854 -0.7873 0.089192 -0.26376 -0.16287 0.35911 0.30458 0.24502 0.22553 -0.0031653 0.47358 0.31146 -0.13823 0.075685 -0.10776 0.38329 -0.13762 0.51707 -0.16707 -0.037466 -0.7236 -0.4151 -0.42359 0.14354 0.046639 0.17527 0.48721 0.26708 -0.031042 0.86002 -0.3946 -0.50514 -0.51294 0.58527 0.18819 -0.29543 0.68596 -0.1035 0.22565 0.185 0.058375 0.030999 0.11929 0.12353 0.12873 0.42126 0.14188 -0.050079 -0.2683 0.12126 0.32302 0.27623 0.5414 0.074715 -0.1949 -0.47053 0.02313 0.68686 0.60158 -0.16194 -0.3651 0.41796 -0.22905 0.074734 0.17509 -0.44255 0.3518 -0.40079 -0.28305 0.39133 0.32303 -0.63198 -0.1507 -0.16894 0.17169 0.18894 0.027644 -0.36997 -0.26366 0.36344 -0.049584 0.32724 0.049712 0.051381 -0.058867 -0.2621 -0.50359 -0.21435 -0.25527 0.22161 0.66558 0.2224 0.27607 0.58587 -0.3071 0.24905 0.098802 -0.26459 0.77839 0.014585 0.86936 0.2329 -0.0027986 -0.087016 0.10863 0.18987 0.54552 0.24903 0.059293 0.30362 -0.028582 -0.6569 0.1206 -0.055416 -0.093077 -0.0012132 -0.15009 0.11192 -0.62139 -0.035773 0.1165 0.36541 0.55984 -0.19964 -0.065579 0.097118 -0.1672 0.13677 -0.95276 -0.25994 0.064799 -0.042161 0.12046 0.12391 0.0017478 0.29533 0.40176 0.057528 0.57864 -0.9973 0.13805 -0.30689 0.11015 -0.35402 -0.13434 -0.24479 0.50355 -0.18675 -0.22337 0.29573 0.21612 -0.068496 -0.60643 0.79013 -0.26975 -0.15492 0.70849 0.21372 0.62962 -0.0056421 0.53597 -0.54259 -0.34726 -0.29945 -0.51895 0.28471 -0.14973 0.54188 0.53535 -0.11233 0.19291 -0.24707 0.058424 -0.5473 -0.06426 0.47187 0.11149 0.28313 -0.23876 -0.10552 -0.051705 -0.28853 -0.13702 0.040562 -0.032269 0.10368 -0.29381 0.33416 0.038269 0.029697 -0.48604 -0.26334 0.28942 -0.0093944 0.13942 -0.29043 0.27332 0.16614 -0.028973 -0.32829 -0.034614 -0.0012628 0.062871 -0.000894 0.22467 0.16005 0.23141 -0.19918 0.16465 0.15247 0.29742 -1.0225 0.056188 0.91529 -0.47809 -0.24204 -0.3158 0.21033 -0.13616 0.10777 -0.26815 -0.44804 -0.12696 -0.43468 0.17849 -0.48101 0.026114 0.057368 0.26052 -0.030488 0.051275 -0.36344 0.11878 0.2279 -0.086855 -0.01455 0.070256 -0.16753 0.61449 -0.27428 -0.17901 -0.36261 0.093134 -1.5724 0.47192 -0.52493 -0.27512 -0.37945 0.29588 0.020506 0.08707 0.057053 0.37167 -0.056446 -0.38735 -0.31246 0.028304 -0.058202 0.067263 -0.58761 0.074556 0.49917 0.45134 -0.51433 -0.60996 0.076835 -0.078086
haze -0.0061289 -0.2702 0.16559 -0.29621 -0.66216 -0.1756 0.46686 1.0362 -0.20692 -0.36097 0.98615 0.32297 -0.55094 -0.36163 -0.27046 0.052225 -0.10079 0.22536 -0.095491 0.17188 0.058372 0.083556 -0.28255 0.12623 -0.0094164 -0.028727 -0.20589 -0.3932 -0.2935 -0.36104 1.0595 0.14423 -0.311 -0.20573 0.11827 -0.0048368 -0.8324 -0.10389 0.34491 0.34006 0.10354 0.11593 0.47379 -0.1042 0.38523 -0.57589 0.027253 -0.44913 -0.52822 -0.44094 0.71219 -0.12278 0.034288 -0.6935 -0.57852 0.33917 0.35018 -0.30193 0.55504 0.085603 -0.21189 -0.51958 -0.17589 -0.13369 0.2976 -0.26048 0.068146 0.62144 0.3416 -0.54399 -0.23937 -0.34802 -0.31469 -0.59554 -0.25011 -0.11644 0.19993 -0.1636 0.24289 -0.0022965 0.3064 -0.26188 0.27166 0.1962 0.37527 -0.22408 0.52979 0.59141 0.035196 0.10632 -0.28318 0.18766 -0.12253 0.41932 -0.64713 0.26068 0.67209 -0.23333 0.030945 -0.15135 0.61662 -0.0025061 -0.58374 0.51866 -0.89244 1.0056 0.15919 0.29183 -0.059984 0.10701 -0.32101 -1.0921 -0.050394 -0.074584 0.56258 -0.5915 0.048547 0.085668 -0.39964 -0.40997 0.093632 -0.22538 -0.83102 -0.051418 -0.31192 0.36056 -0.028854 -0.046907 0.09394 0.012504 0.34555 0.56564 0.48111 0.092143 0.82492 -0.20086 -0.27718 0.9004 0.38921 0.028667 0.78904 0.44698 -0.26892 0.073712 -0.73296 -0.46286 0.53386 0.53514 0.04207 -0.11448 0.27771 0.080703 -0.017482 0.43225 0.047742 -0.095399 -0.063173 -0.36341 0.2948 0.15311 -0.55934 -0.88294 0.62005 -0.23936 0.51953 -0.49463 0.41669 0.61169 -0.20471 -0.0056962 -0.29331 0.46269 0.084808 -0.049355 -0.64697 -0.85777 0.34718 -0.16176 0.14756 -0.65658 -0.54259 -0.13124 -0.88851 0.070637 -0.84926 -0.69345 0.4024 -0.5683 -0.68142 -0.1402 -0.36857 0.36013 -0.49769 -0.17478 0.77214 -0.23962 0.32951 1.0984 -0.00011441 0.9649 -0.13312 0.64326 -0.037091 0.35672 0.025156 0.046782 0.19764 -0.22757 -0.39887 -0.3045 -0.45283 -0.0045182 0.032546 -0.076483 0.72189 -0.038917 1.0621 -0.55688 0.56429 0.11264 0.40465 -0.53146 0.16851 0.69236 -0.24456 0.038704 0.69151 0.16591 -0.43451 0.14115 0.84069 0.29081 -0.31053 -0.6849 -0.27188 -0.32813 0.57882 0.13779 0.36621 -0.45935 0.27899 -0.32315 -0.5743 0.19837 0.0046648 0.18459 0.43369 0.22359 0.16652 -0.081114 -0.54539 -1.0103 -0.14539 0.12021 0.078636 -0.26667 -0.65403 0.4096 0.07257 0.036639 0.21757 0.25738 0.51675 -0.031326 -0.3869 0.012763 -0.45692 0.13828 -0.48614 -0.53757 0.50268 0.47865 -0.049528 -0.032281 -0.4486 0.036258 -0.12295 -0.46811 -0.019014 0.035839 -0.55749 0.018281 -0.88963 -0.024676 -0.19482 -0.19364 0.0069875 0.12679 -0.37379 -0.34094 -0.051568 0.55404 -0.29656 0.26045 0.50872 -0.37399 0.20334 0.70298 -0.3271 -0.24116
rain -0.52618 -0.54041 -0.89537 -0.35598 -0.74356 -0.66838 0.26326 0.89254 0.14362 -0.34904 0.25866 -0.11143 -0.52035 0.1436 -0.075728 -0.84569 -0.28762 0.049872 0.39234 0.52551 -0.39244 -0.2822 -0.097458 -0.12929 -0.38623 0.17261 0.7574 -0.29868 -0.691 -0.36639 0.63951 0.25255 -0.22299 0.16387 -0.83199 -0.30276 -0.32411 -0.36789 -0.073673 0.54726 0.14785 0.26259 0.086208 -0.033827 0.044403 -0.2135 0.3761 0.33816 -0.36696 -0.2096 0.025934 0.47679 0.23046 -0.44333 -0.65379 0.85762 0.62861 -0.70343 1.1284 0.2497 -0.34459 0.17005 0.27826 0.01167 -0.44087 -0.12649 0.31811 0.073688 -0.17127 -0.023486 0.34294 0.18888 -0.15694 -0.37975 -0.58313 -0.45624 -0.5968 0.09743 -0.50593 -0.64092 0.083647 0.38474 -0.15071 0.55042 -0.68742 0.14893 -0.039046 -0.19582 0.61498 -0.066786 0.63395 -0.4659 0.44123 -0.55136 -0.17711 0.97118 0.26321 -0.035901 -0.11096 -0.11161 0.353 1.026 -0.2605 -0.12231 0.31695 0.35807 0.2526 0.21803 -0.47766 -0.13033 -0.36929 -0.88388 -0.1249 0.27972 0.017521 0.19048 0.38647 -0.10236 0.26691 -0.66637 -0.66046 -0.48598 -0.5029 0.59602 -0.23975 -0.054244 0.71177 0.097479 0.18964 0.60496 -0.2421 1.261 0.5195 0.12978 0.28374 0.1499 -0.073072 -0.064345 0.041775 0.20712 -0.13972 0.021692 -0.45101 -0.077633 -0.58888 -0.0062811 0.50587 0.63067 -0.096216 -0.45549 -0.10162 -0.74026 -0.45125 0.16204 0.34589 0.2203 0.73482 -0.72055 0.019937 0.50934 -0.045864 -1.0167 0.4202 0.29336 0.057842 0.19622 0.71137 0.44455 -0.11329 -0.23249 0.3283 0.6458 -0.032498 0.58903 0.067438 -0.21519 0.24967 -0.047893 -0.12095 0.20468 -0.010392 -0.10827 0.5248 -0.013868 -0.40703 -0.2761 0.61498 -0.12118 -0.70097 -0.76415 -0.37243 0.3 -0.32852 -0.13877 0.23339 -0.58504 0.54768 -0.090521 0.30928 -0.19777 0.68883 0.043808 -0.012833 0.25696 0.017598 -0.11323 -0.76201 0.42972 -0.22032 -0.43818 -0.57085 0.23867 -0.098037 -0.4015 0.27659 -0.51578 -0.28637 -0.37785 0.83469 0.10563 1.1508 -0.67165 0.095388 -0.070545 0.039198 0.17726 0.44885 -0.045378 0.22337 -0.24957 0.93144 -0.16601 -0.095582 -0.60227 0.20068 -0.10264 -0.62696 0.048702 0.34737 -0.10634 -0.35068 0.11719 -0.79712 -0.32956 -0.60446 -0.0049038 -0.3351 -0.060065 -0.3063 -0.15462 -0.099521 -0.1788 0.098109 -0.59477 0.53245 -0.15388 0.063044 -0.47686 0.26712 -0.064799 0.2029 -0.093498 -0.44456 0.4692 -0.13718 0.035772 -0.74958 -0.51603 0.47025 -0.65103 0.027106 0.31463 -0.51519 -0.09912 -0.30605 0.2127 -1.6502 -0.34658 -0.19282 0.036578 -0.33871 0.21323 0.54172 -0.17543 -0.60187 -0.14679 0.20983 -0.084584 0.070885 -0.21752 -0.12642 0.030381 0.075461 0.86541 0.30098 0.22916 0.049217 -0.21204 0.32909 -0.021816
snow -0.6961 -0.3339 -0.66542 -0.16459 -0.70283 0.053264 0.57508 1.1246 -0.41143 -0.93335 -0.397 -0.13949 -0.21725 0.49383 -0.16481 -0.43673 -0.39998 -0.14702 0.5828 0.73123 -0.16808 0.050093 0.20341 0.093283 -0.18944 -0.0092796 0.0064213 -0.5586 0.079708 0.034177 0.503 -0.084123 -0.15241 0.042398 -0.95865 0.13482 0.10695 0.22212 0.16383 0.081416 -0.61437 0.60299 0.53843 0.33915 -0.060046 -0.12329 0.30417 0.067838 -0.058329 -0.24791 -0.28177 0.32273 -0.12639 -0.40664 -0.42578 0.71366 0.18676 -0.49576 0.56635 0.39411 -0.11876 0.62798 0.50193 -0.38534 -0.32333 -0.29613 -0.1984 0.082042 -0.63666 -0.25177 0.070225 0.23886 -0.35341 -0.30615 -0.7898 -0.014515 -0.096662 0.27064 0.37095 -0.3916 0.15589 0.40176 -0.12316 -0.0069311 -0.17538 0.29317 -0.035662 -0.062503 -0.11821 -0.26708 0.33433 -0.41039 -0.44941 -0.058539 -0.5973 -0.060833 0.014623 0.031391 0.041093 0.21223 0.54304 0.51444 -0.2447 -0.034937 -0.61583 0.24116 0.93612 0.29663 -0.01733 0.39864 -0.399 -0.69927 0.010899 0.044804 0.096444 0.20555 0.37109 0.13219 0.29942 -0.28494 -0.071103 -0.45338 -0.22126 -0.31673 -0.10643 0.040453 -0.15324 0.33191 0.27801 -0.25143 -0.41784 1.1352 0.18709 0.57932 0.14912 0.42731 -0.81353 0.35546 0.10287 -0.10858 0.13692 0.11451 -0.68607 -0.17115 -0.52708 0.28953 0.5147 0.25549 -0.23139 -0.44275 0.42679 -0.41475 0.041182 -0.2664 0.60967 0.03783 0.27371 -0.5267 0.12029 0.5208 0.59519 -1.1315 0.19505 -0.2528 0.34636 0.82065 0.63271 0.091682 0.38433 -0.81108 0.18232 0.19068 -0.13031 0.21336 0.074454 -0.094498 0.47594 -0.31026 -0.11718 0.092891 0.22067 -0.16721 0.71703 0.30143 -0.40609 -0.16231 0.31315 -0.59325 -0.53404 -0.1087 -0.23026 0.36507 0.30648 -0.75576 -0.20767 -0.46966 -0.21035 0.0091924 0.5057 0.45564 0.84145 -0.19412 0.23964 0.85852 0.05229 -0.0011899 -0.29387 0.044187 -0.23886 0.19207 -0.0079459 -0.25773 0.31145 -0.47615 -0.00056431 -0.8941 -0.38667 -0.37907 0.52821 -0.45513 0.53567 0.13216 0.39741 -0.4904 0.24118 -0.11714 0.27007 0.15184 0.42316 -0.39708 0.13827 -0.27638 0.29908 -0.76008 0.061752 -0.4452 -0.5132 0.12124 0.15792 -0.57067 -0.68793 -0.33873 -0.43291 -0.46817 -0.84667 -0.65852 -0.59116 -0.043406 -0.013031 0.11246 -0.35374 0.3923 0.1172 -0.56268 0.83477 -0.34675 0.054568 -0.48494 0.12108 -0.15504 -0.047008 -0.2665 0.024593 0.70123 0.21284 -0.077796 0.050835 0.3865 0.37534 -0.48749 -0.013739 0.57852 -0.90425 -0.0062806 -0.28674 -0.017749 -1.0189 -0.71371 -0.36557 -0.73412 -0.027371 -0.071396 0.64792 -0.057281 -0.2512 0.039567 0.076976 0.34572 0.34606 -0.38323 -0.074011 -0.14153 -0.03109 0.53137 -0.35708 -0.28263 0.098663 0.17693 -0.39297 0.27708